digraph Tree {
node [shape=box, style="filled, rounded", color="black", fontname=helvetica] ;
edge [fontname=helvetica] ;
0 [label="X[2] <= 0.5\nmse = 0.04\nsamples = 15022\nvalue = 0.41", fillcolor="#f3c5a4"] ;
1 [label="X[4] <= 0.75\nmse = 0.02\nsamples = 5930\nvalue = 0.26", fillcolor="#fae6d8"] ;
0 -> 1 [labeldistance=2.5, labelangle=45, headlabel="True"] ;
2 [label="X[0] <= 0.03\nmse = 0.01\nsamples = 3204\nvalue = 0.23", fillcolor="#fcefe5"] ;
1 -> 2 ;
3 [label="X[3] <= 0.5\nmse = 0.01\nsamples = 1204\nvalue = 0.19", fillcolor="#fdf6f1"] ;
2 -> 3 ;
4 [label="X[4] <= 0.34\nmse = 0.01\nsamples = 832\nvalue = 0.2", fillcolor="#fdf4ee"] ;
3 -> 4 ;
5 [label="mse = 0.01\nsamples = 205\nvalue = 0.19", fillcolor="#fef8f4"] ;
4 -> 5 ;
6 [label="X[4] <= 0.38\nmse = 0.01\nsamples = 627\nvalue = 0.21", fillcolor="#fdf3ec"] ;
4 -> 6 ;
7 [label="mse = 0.03\nsamples = 42\nvalue = 0.28", fillcolor="#f9e3d3"] ;
6 -> 7 ;
8 [label="X[4] <= 0.64\nmse = 0.01\nsamples = 585\nvalue = 0.2", fillcolor="#fdf4ee"] ;
6 -> 8 ;
9 [label="mse = 0.01\nsamples = 397\nvalue = 0.2", fillcolor="#fdf6f1"] ;
8 -> 9 ;
10 [label="mse = 0.01\nsamples = 188\nvalue = 0.22", fillcolor="#fcf1e8"] ;
8 -> 10 ;
11 [label="X[4] <= 0.63\nmse = 0.01\nsamples = 372\nvalue = 0.17", fillcolor="#fefbf9"] ;
3 -> 11 ;
12 [label="mse = 0.01\nsamples = 268\nvalue = 0.16", fillcolor="#ffffff"] ;
11 -> 12 ;
13 [label="mse = 0.01\nsamples = 104\nvalue = 0.22", fillcolor="#fcf1ea"] ;
11 -> 13 ;
14 [label="X[1] <= 0.03\nmse = 0.02\nsamples = 2000\nvalue = 0.25", fillcolor="#fbeade"] ;
2 -> 14 ;
15 [label="X[0] <= 0.17\nmse = 0.02\nsamples = 787\nvalue = 0.28", fillcolor="#f9e3d4"] ;
14 -> 15 ;
16 [label="X[4] <= 0.66\nmse = 0.02\nsamples = 737\nvalue = 0.27", fillcolor="#fae5d7"] ;
15 -> 16 ;
17 [label="X[4] <= 0.57\nmse = 0.01\nsamples = 558\nvalue = 0.25", fillcolor="#fae9dc"] ;
16 -> 17 ;
18 [label="mse = 0.02\nsamples = 393\nvalue = 0.26", fillcolor="#fae6d8"] ;
17 -> 18 ;
19 [label="mse = 0.01\nsamples = 165\nvalue = 0.23", fillcolor="#fcefe6"] ;
17 -> 19 ;
20 [label="mse = 0.02\nsamples = 179\nvalue = 0.32", fillcolor="#f7dac6"] ;
16 -> 20 ;
21 [label="mse = 0.04\nsamples = 50\nvalue = 0.4", fillcolor="#f3c7a7"] ;
15 -> 21 ;
22 [label="X[1] <= 0.24\nmse = 0.01\nsamples = 1213\nvalue = 0.23", fillcolor="#fceee5"] ;
14 -> 22 ;
23 [label="X[0] <= 0.1\nmse = 0.01\nsamples = 962\nvalue = 0.22", fillcolor="#fcf1e9"] ;
22 -> 23 ;
24 [label="X[4] <= 0.48\nmse = 0.01\nsamples = 746\nvalue = 0.2", fillcolor="#fdf4ee"] ;
23 -> 24 ;
25 [label="mse = 0.01\nsamples = 391\nvalue = 0.19", fillcolor="#fdf7f3"] ;
24 -> 25 ;
26 [label="mse = 0.01\nsamples = 355\nvalue = 0.22", fillcolor="#fcf1e9"] ;
24 -> 26 ;
27 [label="mse = 0.02\nsamples = 216\nvalue = 0.27", fillcolor="#fae6d8"] ;
23 -> 27 ;
28 [label="mse = 0.01\nsamples = 251\nvalue = 0.28", fillcolor="#f9e4d4"] ;
22 -> 28 ;
29 [label="X[0] <= 0.1\nmse = 0.03\nsamples = 2726\nvalue = 0.31", fillcolor="#f8dcc8"] ;
1 -> 29 ;
30 [label="X[0] <= 0.03\nmse = 0.02\nsamples = 2478\nvalue = 0.3", fillcolor="#f8dfcd"] ;
29 -> 30 ;
31 [label="X[1] <= 0.5\nmse = 0.02\nsamples = 829\nvalue = 0.25", fillcolor="#fae9dc"] ;
30 -> 31 ;
32 [label="X[4] <= 0.81\nmse = 0.02\nsamples = 797\nvalue = 0.25", fillcolor="#fbeade"] ;
31 -> 32 ;
33 [label="mse = 0.01\nsamples = 272\nvalue = 0.22", fillcolor="#fcefe7"] ;
32 -> 33 ;
34 [label="X[3] <= 0.5\nmse = 0.02\nsamples = 525\nvalue = 0.26", fillcolor="#fae8da"] ;
32 -> 34 ;
35 [label="mse = 0.02\nsamples = 360\nvalue = 0.27", fillcolor="#fae6d7"] ;
34 -> 35 ;
36 [label="mse = 0.02\nsamples = 165\nvalue = 0.24", fillcolor="#fbece1"] ;
34 -> 36 ;
37 [label="mse = 0.04\nsamples = 32\nvalue = 0.38", fillcolor="#f4cbad"] ;
31 -> 37 ;
38 [label="X[1] <= 0.08\nmse = 0.02\nsamples = 1649\nvalue = 0.32", fillcolor="#f7dac5"] ;
30 -> 38 ;
39 [label="X[4] <= 0.76\nmse = 0.03\nsamples = 843\nvalue = 0.35", fillcolor="#f6d3ba"] ;
38 -> 39 ;
40 [label="mse = 0.06\nsamples = 56\nvalue = 0.44", fillcolor="#f2be9a"] ;
39 -> 40 ;
41 [label="X[4] <= 0.84\nmse = 0.03\nsamples = 787\nvalue = 0.34", fillcolor="#f6d4bc"] ;
39 -> 41 ;
42 [label="mse = 0.02\nsamples = 435\nvalue = 0.32", fillcolor="#f7d9c4"] ;
41 -> 42 ;
43 [label="mse = 0.03\nsamples = 352\nvalue = 0.37", fillcolor="#f5ceb2"] ;
41 -> 43 ;
44 [label="X[1] <= 0.3\nmse = 0.02\nsamples = 806\nvalue = 0.29", fillcolor="#f9e1d0"] ;
38 -> 44 ;
45 [label="X[4] <= 0.85\nmse = 0.01\nsamples = 610\nvalue = 0.27", fillcolor="#fae6d8"] ;
44 -> 45 ;
46 [label="mse = 0.01\nsamples = 358\nvalue = 0.25", fillcolor="#fbe9dd"] ;
45 -> 46 ;
47 [label="mse = 0.01\nsamples = 252\nvalue = 0.29", fillcolor="#f9e1d0"] ;
45 -> 47 ;
48 [label="mse = 0.03\nsamples = 196\nvalue = 0.35", fillcolor="#f6d2b9"] ;
44 -> 48 ;
49 [label="mse = 0.05\nsamples = 248\nvalue = 0.43", fillcolor="#f2c09c"] ;
29 -> 49 ;
50 [label="X[0] <= 0.23\nmse = 0.04\nsamples = 9092\nvalue = 0.5", fillcolor="#efb082"] ;
0 -> 50 [labeldistance=2.5, labelangle=-45, headlabel="False"] ;
51 [label="X[4] <= 0.77\nmse = 0.03\nsamples = 7397\nvalue = 0.48", fillcolor="#f0b68c"] ;
50 -> 51 ;
52 [label="X[0] <= 0.1\nmse = 0.03\nsamples = 2470\nvalue = 0.42", fillcolor="#f3c4a2"] ;
51 -> 52 ;
53 [label="X[4] <= 0.25\nmse = 0.02\nsamples = 1155\nvalue = 0.37", fillcolor="#f5cdb1"] ;
52 -> 53 ;
54 [label="mse = 0.01\nsamples = 44\nvalue = 0.29", fillcolor="#f9e1d0"] ;
53 -> 54 ;
55 [label="X[1] <= 0.03\nmse = 0.02\nsamples = 1111\nvalue = 0.38", fillcolor="#f5ccaf"] ;
53 -> 55 ;
56 [label="X[4] <= 0.29\nmse = 0.02\nsamples = 696\nvalue = 0.39", fillcolor="#f4c9ab"] ;
55 -> 56 ;
57 [label="mse = 0.03\nsamples = 19\nvalue = 0.48", fillcolor="#f0b68c"] ;
56 -> 57 ;
58 [label="mse = 0.02\nsamples = 677\nvalue = 0.39", fillcolor="#f4caac"] ;
56 -> 58 ;
59 [label="X[1] <= 0.4\nmse = 0.02\nsamples = 415\nvalue = 0.36", fillcolor="#f6d1b7"] ;
55 -> 59 ;
60 [label="mse = 0.01\nsamples = 342\nvalue = 0.34", fillcolor="#f6d5bd"] ;
59 -> 60 ;
61 [label="mse = 0.03\nsamples = 73\nvalue = 0.44", fillcolor="#f2bf9b"] ;
59 -> 61 ;
62 [label="X[1] <= 0.03\nmse = 0.03\nsamples = 1315\nvalue = 0.45", fillcolor="#f1bb94"] ;
52 -> 62 ;
63 [label="X[4] <= 0.34\nmse = 0.03\nsamples = 600\nvalue = 0.48", fillcolor="#f0b58b"] ;
62 -> 63 ;
64 [label="mse = 0.02\nsamples = 79\nvalue = 0.42", fillcolor="#f3c2a0"] ;
63 -> 64 ;
65 [label="X[4] <= 0.42\nmse = 0.03\nsamples = 521\nvalue = 0.49", fillcolor="#efb488"] ;
63 -> 65 ;
66 [label="mse = 0.03\nsamples = 68\nvalue = 0.54", fillcolor="#eda774"] ;
65 -> 66 ;
67 [label="mse = 0.03\nsamples = 453\nvalue = 0.48", fillcolor="#f0b58b"] ;
65 -> 67 ;
68 [label="X[1] <= 0.47\nmse = 0.03\nsamples = 715\nvalue = 0.43", fillcolor="#f2c09c"] ;
62 -> 68 ;
69 [label="X[0] <= 0.17\nmse = 0.02\nsamples = 640\nvalue = 0.42", fillcolor="#f2c2a0"] ;
68 -> 69 ;
70 [label="mse = 0.02\nsamples = 218\nvalue = 0.39", fillcolor="#f4caab"] ;
69 -> 70 ;
71 [label="mse = 0.03\nsamples = 422\nvalue = 0.44", fillcolor="#f2be9a"] ;
69 -> 71 ;
72 [label="mse = 0.03\nsamples = 75\nvalue = 0.52", fillcolor="#eeac7d"] ;
68 -> 72 ;
73 [label="X[0] <= 0.1\nmse = 0.03\nsamples = 4927\nvalue = 0.51", fillcolor="#eeaf81"] ;
51 -> 73 ;
74 [label="X[4] <= 0.84\nmse = 0.03\nsamples = 2384\nvalue = 0.47", fillcolor="#f0b78e"] ;
73 -> 74 ;
75 [label="X[0] <= 0.03\nmse = 0.03\nsamples = 962\nvalue = 0.44", fillcolor="#f2be99"] ;
74 -> 75 ;
76 [label="mse = 0.03\nsamples = 38\nvalue = 0.34", fillcolor="#f6d4bc"] ;
75 -> 76 ;
77 [label="X[4] <= 0.77\nmse = 0.02\nsamples = 924\nvalue = 0.44", fillcolor="#f1bd98"] ;
75 -> 77 ;
78 [label="mse = 0.03\nsamples = 88\nvalue = 0.49", fillcolor="#efb489"] ;
77 -> 78 ;
79 [label="mse = 0.02\nsamples = 836\nvalue = 0.44", fillcolor="#f2be99"] ;
77 -> 79 ;
80 [label="X[4] <= 0.92\nmse = 0.03\nsamples = 1422\nvalue = 0.49", fillcolor="#efb286"] ;
74 -> 80 ;
81 [label="X[1] <= 0.34\nmse = 0.03\nsamples = 1322\nvalue = 0.5", fillcolor="#efb083"] ;
80 -> 81 ;
82 [label="mse = 0.03\nsamples = 1198\nvalue = 0.49", fillcolor="#efb286"] ;
81 -> 82 ;
83 [label="mse = 0.03\nsamples = 124\nvalue = 0.58", fillcolor="#eb9f68"] ;
81 -> 83 ;
84 [label="mse = 0.02\nsamples = 100\nvalue = 0.39", fillcolor="#f4c9aa"] ;
80 -> 84 ;
85 [label="X[3] <= 0.5\nmse = 0.03\nsamples = 2543\nvalue = 0.54", fillcolor="#eda775"] ;
73 -> 85 ;
86 [label="X[1] <= 0.04\nmse = 0.03\nsamples = 1311\nvalue = 0.52", fillcolor="#eeac7d"] ;
85 -> 86 ;
87 [label="X[4] <= 0.9\nmse = 0.03\nsamples = 701\nvalue = 0.54", fillcolor="#eda775"] ;
86 -> 87 ;
88 [label="mse = 0.03\nsamples = 543\nvalue = 0.55", fillcolor="#eca471"] ;
87 -> 88 ;
89 [label="mse = 0.03\nsamples = 158\nvalue = 0.5", fillcolor="#efb184"] ;
87 -> 89 ;
90 [label="X[1] <= 0.16\nmse = 0.03\nsamples = 610\nvalue = 0.49", fillcolor="#efb286"] ;
86 -> 90 ;
91 [label="mse = 0.02\nsamples = 184\nvalue = 0.43", fillcolor="#f2c09b"] ;
90 -> 91 ;
92 [label="mse = 0.03\nsamples = 426\nvalue = 0.52", fillcolor="#eeac7c"] ;
90 -> 92 ;
93 [label="X[4] <= 0.85\nmse = 0.03\nsamples = 1232\nvalue = 0.56", fillcolor="#eca26c"] ;
85 -> 93 ;
94 [label="X[1] <= 0.04\nmse = 0.03\nsamples = 464\nvalue = 0.53", fillcolor="#eda978"] ;
93 -> 94 ;
95 [label="mse = 0.03\nsamples = 161\nvalue = 0.58", fillcolor="#eb9f69"] ;
94 -> 95 ;
96 [label="mse = 0.03\nsamples = 303\nvalue = 0.51", fillcolor="#eeae80"] ;
94 -> 96 ;
97 [label="X[1] <= 0.26\nmse = 0.03\nsamples = 768\nvalue = 0.58", fillcolor="#eb9d66"] ;
93 -> 97 ;
98 [label="mse = 0.03\nsamples = 622\nvalue = 0.57", fillcolor="#eba06a"] ;
97 -> 98 ;
99 [label="mse = 0.03\nsamples = 146\nvalue = 0.63", fillcolor="#e99355"] ;
97 -> 99 ;
100 [label="X[0] <= 0.37\nmse = 0.04\nsamples = 1695\nvalue = 0.62", fillcolor="#e99659"] ;
50 -> 100 ;
101 [label="X[4] <= 0.68\nmse = 0.03\nsamples = 1319\nvalue = 0.6", fillcolor="#ea9a60"] ;
100 -> 101 ;
102 [label="X[1] <= 0.04\nmse = 0.03\nsamples = 332\nvalue = 0.54", fillcolor="#eda674"] ;
101 -> 102 ;
103 [label="mse = 0.03\nsamples = 147\nvalue = 0.58", fillcolor="#eb9f67"] ;
102 -> 103 ;
104 [label="mse = 0.03\nsamples = 185\nvalue = 0.52", fillcolor="#eeac7d"] ;
102 -> 104 ;
105 [label="X[1] <= 0.26\nmse = 0.03\nsamples = 987\nvalue = 0.62", fillcolor="#e99559"] ;
101 -> 105 ;
106 [label="X[1] <= 0.04\nmse = 0.03\nsamples = 795\nvalue = 0.61", fillcolor="#ea985d"] ;
105 -> 106 ;
107 [label="X[4] <= 0.93\nmse = 0.04\nsamples = 407\nvalue = 0.62", fillcolor="#e99458"] ;
106 -> 107 ;
108 [label="mse = 0.04\nsamples = 389\nvalue = 0.62", fillcolor="#e99559"] ;
107 -> 108 ;
109 [label="mse = 0.02\nsamples = 18\nvalue = 0.71", fillcolor="#e5813a"] ;
107 -> 109 ;
110 [label="X[4] <= 0.88\nmse = 0.03\nsamples = 388\nvalue = 0.59", fillcolor="#ea9b62"] ;
106 -> 110 ;
111 [label="mse = 0.03\nsamples = 212\nvalue = 0.56", fillcolor="#eca26d"] ;
110 -> 111 ;
112 [label="mse = 0.03\nsamples = 176\nvalue = 0.63", fillcolor="#e99355"] ;
110 -> 112 ;
113 [label="mse = 0.03\nsamples = 192\nvalue = 0.66", fillcolor="#e78b49"] ;
105 -> 113 ;
114 [label="X[1] <= 0.14\nmse = 0.03\nsamples = 376\nvalue = 0.68", fillcolor="#e68743"] ;
100 -> 114 ;
115 [label="mse = 0.03\nsamples = 161\nvalue = 0.65", fillcolor="#e88f50"] ;
114 -> 115 ;
116 [label="mse = 0.03\nsamples = 215\nvalue = 0.71", fillcolor="#e58139"] ;
114 -> 116 ;
}